{"model_type": "Sequential", "descriptors": [{"layer": "Input2D", "height": 1, "width": 1, "channel": 6, "batch": 1}, {"layer": "Dense2D", "units": 6}, {"layer": "Bias2D", "units": 6}, {"layer": "ReLu"}, {"layer": "Dense2D", "units": 16}, {"layer": "Bias2D", "units": 16}, {"layer": "ReLu"}, {"layer": "Dense2D", "units": 2}, {"layer": "Bias2D", "units": 2}], "weights": [[[[[0.10886263847351074, 1.4760711193084717, -0.5469334125518799, -0.18484407663345337, -1.1540640592575073, 0.2841835618019104], [0.055576324462890625, -0.4716007113456726, -2.193984270095825, 0.2993503212928772, 0.46698909997940063, -0.02683103084564209], [0.14707982540130615, 0.2758652865886688, 0.26533734798431396, 0.5308869481086731, -1.6435284614562988, -0.16735166311264038], [0.33665233850479126, -0.5509423613548279, 0.2401026040315628, 0.33229976892471313, -0.6230051517486572, 0.3899018168449402], [-0.2875719964504242, 0.17586390674114227, -0.2915024161338806, 0.0451473593711853, 0.20784130692481995, 0.46202415227890015], [0.6036819815635681, -1.284104585647583, -0.7842040061950684, -0.6307607889175415, 0.797076940536499, 0.5213280320167542]]]], [[[[0.0, -0.007978297770023346, -0.044198572635650635, 0.0, -0.02217397466301918, 0.0]]]], [[[[-0.06376108527183533, 0.013192832469940186, 0.3185822367668152, -0.23600605130195618, -0.09418612718582153, 0.27329689264297485, -0.31028562784194946, 0.023580312728881836, 0.09430736303329468, -0.2035169005393982, 0.27498775720596313, 0.4412958025932312, -0.45926201343536377, -0.17731785774230957, 0.47918635606765747, 0.5024412274360657], [0.19333218038082123, 0.31613460183143616, 0.20594072341918945, 0.6459423899650574, -0.3852408230304718, 0.45403754711151123, 0.3669115900993347, 0.18341690301895142, -0.6073223352432251, 0.2342851608991623, -2.88417649269104, 0.2003069967031479, -0.16940611600875854, -0.49469032883644104, 0.3449952304363251, 0.14026325941085815], [0.12295795977115631, 0.24841280281543732, -0.05018427222967148, 0.40148165822029114, 0.3336246907711029, -0.4347414970397949, 0.3674149513244629, -1.5272451639175415, 0.3608427047729492, -0.09750863909721375, -0.2508029639720917, 0.15229474008083344, -0.171800434589386, 1.2943898439407349, 0.27578145265579224, -0.1123410314321518], [0.5056448578834534, -0.4910946190357208, 0.32793891429901123, -0.02054053544998169, 0.11451423168182373, 0.12320327758789062, -0.22253379225730896, -0.011070311069488525, -0.39894410967826843, 0.042310118675231934, -0.49888792634010315, 0.21071606874465942, -0.328346312046051, 0.005121946334838867, -0.48142218589782715, -0.36415040493011475], [-0.3725692927837372, -0.33547380566596985, 0.007214495446532965, 0.16167724132537842, -0.11391894519329071, -0.5112338662147522, -0.40847212076187134, 1.2391694784164429, 1.4757181406021118, -0.26299378275871277, 0.06119941174983978, -0.430098295211792, -0.3712356388568878, -0.04303938150405884, -0.33700400590896606, -0.08600476384162903], [-0.2668664753437042, 0.3189944624900818, -0.2313196063041687, 0.33878499269485474, -0.46963319182395935, 0.39998477697372437, 0.34655702114105225, -0.08002620935440063, -0.507264256477356, -0.29988527297973633, 0.3505125641822815, 0.3758050203323364, 0.30774521827697754, 0.23298031091690063, 0.42336463928222656, 0.052826106548309326]]]], [[[[-0.02689657360315323, -0.03249671310186386, -0.006131137255579233, -0.035100627690553665, -0.006845738738775253, -0.02847275510430336, -0.010824351571500301, -0.0014804748352617025, 0.0029889591969549656, -0.028542518615722656, 0.019579248502850533, -0.010201869532465935, 0.0, 0.0001117130450438708, -0.010661805979907513, -0.012513967230916023]]]], [[[[-0.4414636790752411, 0.5635120272636414], [-0.08426202833652496, 0.28832149505615234], [-0.0528610460460186, -0.5492658019065857], [-0.17536887526512146, 0.19815583527088165], [0.00776166096329689, -0.2539904713630676], [-0.24613872170448303, 0.5511521100997925], [0.4765724539756775, -0.49276643991470337], [-0.5615124106407166, -0.03766949847340584], [0.3789554536342621, -0.004927924834191799], [0.08490710705518723, 0.1678866744041443], [-0.044862113893032074, -0.5032633543014526], [0.30275633931159973, -0.23183764517307281], [-0.03523671627044678, -0.40219151973724365], [0.15152499079704285, -0.022416168823838234], [0.47063013911247253, -0.15311770141124725], [0.4293413460254669, 0.22581185400485992]]]], [[[[6.011366349412128e-05, 0.01281361561268568]]]]]}