{"model_type": "Sequential", "descriptors": [{"layer": "Input2D", "height": 1, "width": 1, "channel": 6, "batch": 1}, {"layer": "Dense2D", "units": 6}, {"layer": "Bias2D", "units": 6}, {"layer": "ReLu"}, {"layer": "Dense2D", "units": 16}, {"layer": "Bias2D", "units": 16}, {"layer": "ReLu"}, {"layer": "Dense2D", "units": 2}, {"layer": "Bias2D", "units": 2}], "weights": [[[[[-1.2441234588623047, 1.6800063848495483, 0.4239913821220398, -0.03824925422668457, -0.7607757449150085, 0.18518447875976562], [-0.9161887764930725, -0.2822552025318146, -0.024863243103027344, 0.5563663840293884, -2.151686906814575, 0.19495797157287598], [-1.105939269065857, -0.324745237827301, -0.029499948024749756, 0.44736725091934204, -0.2481773942708969, 0.6498381495475769], [0.011181970126926899, -0.39145156741142273, -0.2556324303150177, -0.2702351212501526, 0.11083226650953293, 0.6600895524024963], [-0.05524227395653725, 0.30016472935676575, 0.4429786801338196, -0.09094685316085815, 0.045846231281757355, -0.28880369663238525], [0.5453047752380371, -0.9736720323562622, 0.13501352071762085, -0.04011029005050659, -0.6781463623046875, 0.52671879529953]]]], [[[[-0.029949447140097618, -0.002131765941157937, 0.0, 0.0, -0.04334229975938797, 0.0]]]], [[[[-0.3910554051399231, 0.815430760383606, -0.04267724230885506, 0.6127196550369263, -0.1915854513645172, -0.017917752265930176, 0.16724614799022675, -0.251054584980011, -0.08044818043708801, 0.6196048259735107, 0.5992993712425232, 0.6292333602905273, -0.2354094386100769, -0.5268586277961731, -0.28697025775909424, 0.08169356733560562], [-0.5024953484535217, -1.536468744277954, 0.5139108896255493, 0.9224853515625, -0.4115270972251892, -0.1249832883477211, 0.10580309480428696, -0.3058435916900635, -0.43925559520721436, 0.8482963442802429, 0.0908953920006752, -2.4751386642456055, 0.11817414313554764, 0.5099622011184692, -0.5138731002807617, -0.023407593369483948], [0.20486867427825928, 0.4441579580307007, 0.1295040249824524, 0.4438125491142273, -0.12057378888130188, 0.37182730436325073, 0.43268370628356934, -0.13856223225593567, -0.0695188045501709, -0.3627602458000183, 0.3014680743217468, -0.125363290309906, 0.43200576305389404, 0.25757867097854614, 0.03207963705062866, 0.29978668689727783], [-0.18084335327148438, 0.28493934869766235, 0.4580013155937195, 0.2041756510734558, 0.056052327156066895, -0.11180689930915833, -0.3449292778968811, 0.31715822219848633, -0.30398738384246826, -0.0022963285446166992, 0.2089443802833557, -0.27747583389282227, 0.2267904281616211, 0.1686578392982483, 0.2855134606361389, -0.052410393953323364], [0.4185144007205963, 0.10359092056751251, 0.7111955881118774, 1.0971323251724243, -0.5174422860145569, 0.13475900888442993, 1.0862727165222168, 0.27689599990844727, -0.12598586082458496, 0.9949914813041687, 0.6403167247772217, 0.4029974937438965, -0.17999978363513947, -0.24511151015758514, -0.4111188054084778, -0.1684490144252777], [-0.15374112129211426, 0.14185702800750732, 0.18657582998275757, 0.32698529958724976, -0.01870328187942505, -0.1950353980064392, 0.4424346089363098, 0.4294919967651367, 0.20682436227798462, -0.2606692314147949, -0.37825512886047363, 0.4066483974456787, -0.23817437887191772, -0.33687907457351685, -0.45135748386383057, 0.019379019737243652]]]], [[[[-0.01143665425479412, 0.01592814177274704, -0.03545645996928215, -0.00829495582729578, 0.0, -0.007724324241280556, -0.008310966193675995, -0.020673882216215134, 0.0, -0.008070254698395729, -0.01012149453163147, 0.0005660066963173449, -0.02643566206097603, -0.026584425941109657, 0.0, -0.008798297494649887]]]], [[[[-0.05136604234576225, -0.5245677828788757], [0.21938449144363403, -0.16757838428020477], [-0.15853935480117798, 0.036037661135196686], [0.17940941452980042, 0.18428465723991394], [-0.07972374558448792, -0.3942907750606537], [-0.5304046273231506, 0.432466596364975], [0.028001954779028893, 0.04067542776465416], [-0.3734837770462036, 0.19704893231391907], [-0.511559247970581, -0.34443795680999756], [0.18272866308689117, 0.20267163217067719], [0.010704944841563702, 0.006320691667497158], [-0.02772771194577217, -0.4326702356338501], [-0.3477253019809723, 0.3041273355484009], [-0.38796481490135193, 0.39091038703918457], [0.5133035182952881, -0.16877159476280212], [0.23658166825771332, -0.010215596295893192]]]], [[[[-0.0047521027736365795, 0.007233001757413149]]]]]}