{"model_type": "Sequential", "descriptors": [{"layer": "Input2D", "height": 1, "width": 1, "channel": 6, "batch": 1}, {"layer": "Dense2D", "units": 6}, {"layer": "Bias2D", "units": 6}, {"layer": "ReLu"}, {"layer": "Dense2D", "units": 16}, {"layer": "Bias2D", "units": 16}, {"layer": "ReLu"}, {"layer": "Dense2D", "units": 2}, {"layer": "Bias2D", "units": 2}], "weights": [[[[[0.0018591880798339844, -0.05963408946990967, 0.43002837896347046, -1.6488897800445557, -2.168663501739502, -0.847490131855011], [-0.5248370170593262, 0.3551633954048157, 0.42106813192367554, -0.29586154222488403, -0.1936216950416565, 2.6060972213745117], [0.33120816946029663, 0.5289313197135925, -0.1669856309890747, 1.846238374710083, -1.5335359573364258, -0.3481414318084717], [-0.44681358337402344, -0.42101043462753296, -0.058586299419403076, 0.49622082710266113, 0.026800816878676414, -0.05916634574532509], [0.6267445683479309, 0.3209654688835144, 0.5332289338111877, 0.3100188970565796, 1.0627226829528809, 0.17610277235507965], [0.4866793751716614, -0.10036814212799072, 0.5461992621421814, 0.24695923924446106, -0.376798152923584, 0.0970979779958725]]]], [[[[0.0, 0.0, 0.0, 0.02606227807700634, -0.03329387307167053, 0.028030933812260628]]]], [[[[-0.07180345058441162, -0.06480422616004944, 0.18546843528747559, 0.4200354814529419, 0.3536641597747803, 0.4904335141181946, 0.2058379054069519, -0.5157729983329773, 0.2548419237136841, 0.23340588808059692, -0.03740793466567993, 0.2908863425254822, 0.22265982627868652, -0.16063588857650757, 0.41680842638015747, -0.0749826729297638], [0.3994588255882263, -0.0827227234840393, 0.5009647011756897, 0.24812674522399902, -0.16755464673042297, 0.4284176230430603, 0.21428900957107544, 0.40605461597442627, 0.14982879161834717, 0.5080727934837341, -0.13050931692123413, 0.4789009690284729, 0.5144490599632263, -0.4978936016559601, 0.2376592755317688, -0.19978195428848267], [0.1583966612815857, -0.3844972252845764, 0.2556605935096741, -0.3044869303703308, 0.12894248962402344, -0.22182196378707886, -0.2760007977485657, -0.21452856063842773, 0.33104604482650757, 0.40738189220428467, 0.3454887270927429, 0.2351277470588684, -0.19321703910827637, 0.2965744137763977, -0.009186625480651855, 0.12534189224243164], [0.5821098685264587, -0.26159459352493286, 0.40342894196510315, 0.488359272480011, 0.01819711923599243, -0.2892647087574005, -1.7800583839416504, -0.5375763177871704, -0.16421741247177124, -0.3000059425830841, 2.0292396545410156, 0.12257777899503708, -0.5092961192131042, -0.42135292291641235, -0.8466160297393799, -0.20878177881240845], [1.6669936180114746, -0.04971858859062195, -0.2965564429759979, -1.9197052717208862, 0.03784964606165886, -0.35891488194465637, 0.726457953453064, 0.3325590491294861, -0.16263824701309204, 0.22688932716846466, -1.0775076150894165, 0.25112950801849365, 0.018284453079104424, -0.18488407135009766, 1.794338345527649, 0.08058058470487595], [-1.8103724718093872, -0.41609498858451843, -0.13816951215267181, 2.071021556854248, -0.25729846954345703, -0.402955561876297, -5.910851955413818, -0.31614917516708374, -0.14987894892692566, -0.19520674645900726, 3.0920674800872803, -0.10851838439702988, -0.0786316990852356, -0.4640316069126129, 0.927470862865448, 0.3602718412876129]]]], [[[[-0.02613113448023796, 0.0, -0.00680533004924655, 0.03780660033226013, -0.005065070930868387, 0.0, 0.006433969829231501, -0.009753381833434105, 0.0, -0.01054844819009304, 0.008993551135063171, -0.03633188456296921, -0.005226296838372946, 0.0, -0.02865459956228733, -0.04087474197149277]]]], [[[[0.5780688524246216, 0.22910287976264954], [0.3303898572921753, -0.4481102526187897], [0.47376319766044617, 0.1949036866426468], [-0.43421679735183716, 0.3308658301830292], [0.5745572447776794, -0.5091609954833984], [-0.3511921167373657, 0.3954601287841797], [0.27845558524131775, 0.23098298907279968], [-0.21516701579093933, 0.426813542842865], [0.0815773606300354, -0.24619340896606445], [-0.4697405993938446, 0.16003087162971497], [0.28582537174224854, -0.3147655427455902], [0.3813825249671936, -0.21312294900417328], [-0.5552992820739746, 0.31794700026512146], [-0.4514097571372986, 0.2117772102355957], [-0.5329239368438721, 0.0349651463329792], [-0.5266515612602234, -0.005365865305066109]]]], [[[[0.011827056296169758, 0.002790162106975913]]]]]}