{"model_type": "Sequential", "descriptors": [{"layer": "Input2D", "height": 1, "width": 1, "channel": 6, "batch": 1}, {"layer": "Dense2D", "units": 6}, {"layer": "Bias2D", "units": 6}, {"layer": "ReLu"}, {"layer": "Dense2D", "units": 16}, {"layer": "Bias2D", "units": 16}, {"layer": "ReLu"}, {"layer": "Dense2D", "units": 2}, {"layer": "Bias2D", "units": 2}], "weights": [[[[[0.09337228536605835, -0.011792403645813465, 0.4826626181602478, 0.5472870469093323, 0.5969175696372986, 0.5595242977142334], [0.6786512732505798, -0.3002648651599884, 0.4845272898674011, 0.0035253167152404785, -0.061407268047332764, -1.0090510845184326], [-0.3728431463241577, 1.1348868608474731, 0.5155624747276306, -0.6482055187225342, 0.4808794856071472, 0.3855736255645752], [0.37610453367233276, 0.6913921236991882, -0.35396575927734375, 0.07258903980255127, 0.15658462047576904, 0.24757947027683258], [0.19238686561584473, -0.20024821162223816, 0.4389052987098694, 0.38559120893478394, -0.07483172416687012, 0.44152548909187317], [0.3221511244773865, -1.0643186569213867, -0.5966887474060059, 0.28200554847717285, -0.6651829481124878, -0.40632960200309753]]]], [[[[0.0, 0.0062402402982115746, 0.0, 0.0, 0.0, 0.008498049341142178]]]], [[[[-0.4767668545246124, -0.42547234892845154, -0.028057575225830078, 0.10051620006561279, -0.3496364951133728, -0.11485391855239868, 0.26867038011550903, -0.015626132488250732, 0.3075703978538513, -0.09564164280891418, 0.20483708381652832, -0.4543103575706482, 0.06239175796508789, -0.10041683912277222, 0.48282676935195923, -0.22250890731811523], [-0.2121984362602234, 3.5165226459503174, 0.31176871061325073, 0.21443870663642883, -0.415707528591156, -0.025291914120316505, -0.19285258650779724, 0.3422333002090454, -0.10882998257875443, -0.13725924491882324, 0.6031641364097595, 1.2075783014297485, 0.1454523205757141, -0.22167307138442993, 3.14487886428833, 1.0440096855163574], [0.4600973129272461, -0.015488147735595703, 0.1837688684463501, 0.025187134742736816, 0.38277047872543335, -0.003797292709350586, 0.4198204278945923, -0.1875300407409668, -0.01907205581665039, 0.21988260746002197, 3.248453140258789e-05, 0.18456971645355225, 0.3122294545173645, -0.24084138870239258, 0.4873359799385071, 0.4881393313407898], [-0.18468374013900757, 0.05991023778915405, 0.2393038272857666, -0.46032968163490295, -0.5184356570243835, 0.38415056467056274, -0.3801978826522827, 0.47920042276382446, 0.04940122365951538, -0.4542596936225891, 0.08264040946960449, 0.21513265371322632, -0.05955663323402405, -0.3064035177230835, -0.11831814050674438, -0.3695850074291229], [-0.10199949145317078, -0.33109286427497864, -0.2443956434726715, 0.0905841588973999, -0.22717079520225525, -0.2679361402988434, -0.07498118281364441, -0.19051292538642883, 0.45342087745666504, -0.01748603582382202, -0.08463707566261292, 0.4524926543235779, -0.06988200545310974, -0.3422170877456665, -0.25570961833000183, 0.4444095492362976], [0.06195830926299095, -0.2455221563577652, -0.25922173261642456, -0.012353450059890747, -0.12119793891906738, 0.42665907740592957, 0.30317214131355286, -0.4974150061607361, 0.3405417203903198, -0.3729248642921448, -0.2928575873374939, 1.13576340675354, -0.31587502360343933, -0.19124692678451538, 0.5060778260231018, 0.2419198602437973]]]], [[[[-0.0068399179726839066, 0.0015049321809783578, -0.009945528581738472, -0.010166089981794357, 0.0, -0.006147435400635004, -0.007827451452612877, -0.009802289307117462, -0.005665461532771587, 0.0, -0.0024089522194117308, -0.017300620675086975, -0.008164341561496258, 0.0, -0.0005644590128213167, -0.0070595331490039825]]]], [[[[0.39546552300453186, -0.15120577812194824], [0.5795857906341553, -0.09367257356643677], [0.05563151463866234, -0.49314552545547485], [-0.15085212886333466, 0.2601839601993561], [0.3432964086532593, 0.5186454057693481], [0.12029334902763367, -0.4186072051525116], [0.5266176462173462, 0.16820518672466278], [-0.48432835936546326, -0.42852646112442017], [0.5234336256980896, 0.16191184520721436], [-0.20391789078712463, 0.029232144355773926], [0.15660984814167023, 0.0759357288479805], [-0.0311161819845438, -0.032780133187770844], [-0.46055513620376587, 0.5255920886993408], [-0.021552324295043945, 0.22742140293121338], [0.44441720843315125, 0.08310962468385696], [0.28772473335266113, 0.028884215280413628]]]], [[[[0.015107163228094578, 0.006155785173177719]]]]]}