{"model_type": "Sequential", "descriptors": [{"layer": "Input2D", "height": 1, "width": 1, "channel": 2, "batch": 1}, {"layer": "Dense2D", "units": 2}, {"layer": "Bias2D", "units": 2}, {"layer": "ReLu"}, {"layer": "Dense2D", "units": 26}, {"layer": "Bias2D", "units": 26}, {"layer": "ReLu"}, {"layer": "Dense2D", "units": 1}, {"layer": "Bias2D", "units": 1}], "weights": [[[[[-4.290491104125977, -1.1337435245513916], [-3.305269956588745, 1.0360747575759888]]]], [[[[-0.0946836769580841, -0.010620297864079475]]]], [[[[2.489342451095581, -0.17050860822200775, -0.0697488784790039, -0.2749824523925781, 0.3232300281524658, -0.17480650544166565, 2.6622872352600098, -0.20004470646381378, -0.3108308017253876, 2.3731932640075684, -0.14265002310276031, -0.07596859335899353, 0.30377835035324097, 2.438372850418091, 2.3062422275543213, -0.03645843267440796, -0.04897892475128174, 0.08512551337480545, -0.1258508563041687, 2.864438772201538, 2.9771034717559814, -0.0046225786209106445, 2.7396059036254883, -0.026973634958267212, 2.3299877643585205, -0.3547675311565399], [0.004724441561847925, 0.06239096820354462, -0.35941842198371887, 0.1956285536289215, -0.20300139486789703, -0.36214765906333923, 0.2829417288303375, 0.230877086520195, 0.17357279360294342, -0.3549584150314331, 0.20397940278053284, -0.036537230014801025, 0.18476645648479462, 0.3717552423477173, -0.3400493264198303, -0.22549182176589966, -0.3643374443054199, 0.22710618376731873, -0.43961790204048157, -0.202388197183609, -0.2261614054441452, -0.437593549489975, -0.3014419376850128, -0.397548109292984, 0.4723089337348938, 0.31720882654190063]]]], [[[[-0.03615190461277962, -0.002600243082270026, 0.0, -0.005205822642892599, -0.04363754391670227, 0.0, -0.03791182115674019, -0.005215337499976158, -0.0018362263217568398, -0.03452927991747856, -0.005037975963205099, 0.0, -0.04070519283413887, -0.035603512078523636, -0.0333530530333519, 0.0, 0.0, -0.01176923792809248, 0.0, -0.04127522185444832, -0.04304425045847893, 0.0, -0.039857447147369385, 0.0, -0.034006718546152115, -0.0011995848035439849]]]], [[[[1.2501713037490845], [-0.144329234957695], [0.3076370656490326], [0.3499309718608856], [-0.31606101989746094], [0.3969000279903412], [1.5534825325012207], [0.3583294749259949], [-0.3050196170806885], [1.1924625635147095], [0.2437618374824524], [0.1353144347667694], [-0.44547656178474426], [1.0720610618591309], [1.333829641342163], [-0.35672205686569214], [0.14535334706306458], [-0.23603911697864532], [-0.14097535610198975], [1.4279531240463257], [1.3534868955612183], [0.3979850709438324], [1.1846721172332764], [-0.34440797567367554], [1.0914642810821533], [-0.22181366384029388]]]], [[[[7.740251021459699e-05]]]]]}